digraph Tree {
node [shape=box, style="filled, rounded", color="black", fontname=helvetica] ;
edge [fontname=helvetica] ;
0 [label=<age &le; -0.405<br/>mse = 0.981<br/>samples = 721<br/>value = -0.004>, fillcolor="#f5cdb0"] ;
1 [label=<cement &le; 0.702<br/>mse = 0.518<br/>samples = 230<br/>value = -0.741>, fillcolor="#fae7da"] ;
0 -> 1 [labeldistance=2.5, labelangle=45, headlabel="True"] ;
2 [label=<age &le; -0.783<br/>mse = 0.262<br/>samples = 167<br/>value = -1.01>, fillcolor="#fcf1e9"] ;
1 -> 2 ;
3 [label=<cement &le; -0.405<br/>mse = 0.153<br/>samples = 121<br/>value = -1.21>, fillcolor="#fef8f5"] ;
2 -> 3 ;
4 [label=<mse = 0.085<br/>samples = 70<br/>value = -1.388>, fillcolor="#ffffff"] ;
3 -> 4 ;
5 [label=<mse = 0.144<br/>samples = 51<br/>value = -0.965>, fillcolor="#fcf0e7"] ;
3 -> 5 ;
6 [label=<superplastic &le; 0.516<br/>mse = 0.166<br/>samples = 46<br/>value = -0.484>, fillcolor="#f8decb"] ;
2 -> 6 ;
7 [label=<mse = 0.09<br/>samples = 31<br/>value = -0.637>, fillcolor="#f9e4d4"] ;
6 -> 7 ;
8 [label=<mse = 0.176<br/>samples = 15<br/>value = -0.168>, fillcolor="#f6d3b9"] ;
6 -> 8 ;
9 [label=<water &le; -1.357<br/>mse = 0.499<br/>samples = 63<br/>value = -0.03>, fillcolor="#f5ceb1"] ;
1 -> 9 ;
10 [label=<age &le; -0.981<br/>mse = 0.225<br/>samples = 11<br/>value = 0.628>, fillcolor="#f0b68c"] ;
9 -> 10 ;
11 [label=<mse = 0.035<br/>samples = 5<br/>value = 0.158>, fillcolor="#f3c7a6"] ;
10 -> 11 ;
12 [label=<mse = 0.046<br/>samples = 6<br/>value = 1.019>, fillcolor="#eda775"] ;
10 -> 12 ;
13 [label=<fineagg &le; -0.193<br/>mse = 0.446<br/>samples = 52<br/>value = -0.169>, fillcolor="#f6d3b9"] ;
9 -> 13 ;
14 [label=<mse = 0.357<br/>samples = 38<br/>value = -0.001>, fillcolor="#f5ccb0"] ;
13 -> 14 ;
15 [label=<mse = 0.402<br/>samples = 14<br/>value = -0.626>, fillcolor="#f9e3d3"] ;
13 -> 15 ;
16 [label=<cement &le; 0.716<br/>mse = 0.824<br/>samples = 491<br/>value = 0.342>, fillcolor="#f2c09c"] ;
0 -> 16 [labeldistance=2.5, labelangle=-45, headlabel="False"] ;
17 [label=<cement &le; -1.114<br/>mse = 0.553<br/>samples = 378<br/>value = 0.071>, fillcolor="#f4caab"] ;
16 -> 17 ;
18 [label=<slag &le; -0.173<br/>mse = 0.28<br/>samples = 86<br/>value = -0.558>, fillcolor="#f9e1cf"] ;
17 -> 18 ;
19 [label=<mse = 0.025<br/>samples = 18<br/>value = -1.321>, fillcolor="#fefdfb"] ;
18 -> 19 ;
20 [label=<mse = 0.153<br/>samples = 68<br/>value = -0.356>, fillcolor="#f7d9c4"] ;
18 -> 20 ;
21 [label=<water &le; 0.133<br/>mse = 0.482<br/>samples = 292<br/>value = 0.256>, fillcolor="#f3c3a1"] ;
17 -> 21 ;
22 [label=<mse = 0.534<br/>samples = 135<br/>value = 0.573>, fillcolor="#f0b88f"] ;
21 -> 22 ;
23 [label=<mse = 0.277<br/>samples = 157<br/>value = -0.017>, fillcolor="#f5cdb1"] ;
21 -> 23 ;
24 [label=<water &le; 0.068<br/>mse = 0.661<br/>samples = 113<br/>value = 1.249>, fillcolor="#eb9f68"] ;
16 -> 24 ;
25 [label=<water &le; -0.884<br/>mse = 0.32<br/>samples = 65<br/>value = 1.72>, fillcolor="#e88e4d"] ;
24 -> 25 ;
26 [label=<mse = 0.292<br/>samples = 42<br/>value = 1.528>, fillcolor="#e99558"] ;
25 -> 26 ;
27 [label=<mse = 0.18<br/>samples = 23<br/>value = 2.071>, fillcolor="#e58139"] ;
25 -> 27 ;
28 [label=<superplastic &le; -0.461<br/>mse = 0.418<br/>samples = 48<br/>value = 0.612>, fillcolor="#f0b68d"] ;
24 -> 28 ;
29 [label=<mse = 0.223<br/>samples = 39<br/>value = 0.428>, fillcolor="#f1bd97"] ;
28 -> 29 ;
30 [label=<mse = 0.482<br/>samples = 9<br/>value = 1.407>, fillcolor="#ea995f"] ;
28 -> 30 ;
}