digraph Tree {
node [shape=box] ;
0 [label="X[7] <= -0.405\nmse = 0.981\nsamples = 721\nvalue = -0.004"] ;
1 [label="X[0] <= 0.702\nmse = 0.518\nsamples = 230\nvalue = -0.741"] ;
0 -> 1 [labeldistance=2.5, labelangle=45, headlabel="True"] ;
2 [label="X[7] <= -0.783\nmse = 0.262\nsamples = 167\nvalue = -1.01"] ;
1 -> 2 ;
3 [label="X[0] <= -0.405\nmse = 0.153\nsamples = 121\nvalue = -1.21"] ;
2 -> 3 ;
4 [label="mse = 0.085\nsamples = 70\nvalue = -1.388"] ;
3 -> 4 ;
5 [label="mse = 0.144\nsamples = 51\nvalue = -0.965"] ;
3 -> 5 ;
6 [label="X[4] <= 0.516\nmse = 0.166\nsamples = 46\nvalue = -0.484"] ;
2 -> 6 ;
7 [label="mse = 0.09\nsamples = 31\nvalue = -0.637"] ;
6 -> 7 ;
8 [label="mse = 0.176\nsamples = 15\nvalue = -0.168"] ;
6 -> 8 ;
9 [label="X[3] <= -1.357\nmse = 0.499\nsamples = 63\nvalue = -0.03"] ;
1 -> 9 ;
10 [label="X[7] <= -0.981\nmse = 0.225\nsamples = 11\nvalue = 0.628"] ;
9 -> 10 ;
11 [label="mse = 0.035\nsamples = 5\nvalue = 0.158"] ;
10 -> 11 ;
12 [label="mse = 0.046\nsamples = 6\nvalue = 1.019"] ;
10 -> 12 ;
13 [label="X[6] <= -0.193\nmse = 0.446\nsamples = 52\nvalue = -0.169"] ;
9 -> 13 ;
14 [label="mse = 0.357\nsamples = 38\nvalue = -0.001"] ;
13 -> 14 ;
15 [label="mse = 0.402\nsamples = 14\nvalue = -0.626"] ;
13 -> 15 ;
16 [label="X[0] <= 0.716\nmse = 0.824\nsamples = 491\nvalue = 0.342"] ;
0 -> 16 [labeldistance=2.5, labelangle=-45, headlabel="False"] ;
17 [label="X[0] <= -1.114\nmse = 0.553\nsamples = 378\nvalue = 0.071"] ;
16 -> 17 ;
18 [label="X[1] <= -0.173\nmse = 0.28\nsamples = 86\nvalue = -0.558"] ;
17 -> 18 ;
19 [label="mse = 0.025\nsamples = 18\nvalue = -1.321"] ;
18 -> 19 ;
20 [label="mse = 0.153\nsamples = 68\nvalue = -0.356"] ;
18 -> 20 ;
21 [label="X[3] <= 0.133\nmse = 0.482\nsamples = 292\nvalue = 0.256"] ;
17 -> 21 ;
22 [label="mse = 0.534\nsamples = 135\nvalue = 0.573"] ;
21 -> 22 ;
23 [label="mse = 0.277\nsamples = 157\nvalue = -0.017"] ;
21 -> 23 ;
24 [label="X[3] <= 0.068\nmse = 0.661\nsamples = 113\nvalue = 1.249"] ;
16 -> 24 ;
25 [label="X[3] <= -0.884\nmse = 0.32\nsamples = 65\nvalue = 1.72"] ;
24 -> 25 ;
26 [label="mse = 0.292\nsamples = 42\nvalue = 1.528"] ;
25 -> 26 ;
27 [label="mse = 0.18\nsamples = 23\nvalue = 2.071"] ;
25 -> 27 ;
28 [label="X[4] <= -0.461\nmse = 0.418\nsamples = 48\nvalue = 0.612"] ;
24 -> 28 ;
29 [label="mse = 0.223\nsamples = 39\nvalue = 0.428"] ;
28 -> 29 ;
30 [label="mse = 0.482\nsamples = 9\nvalue = 1.407"] ;
28 -> 30 ;
}